tree
version=v4
num_class=1
num_tree_per_iteration=1
label_index=0
max_feature_idx=124
objective=regression
feature_names=adj_factor amount amount_log amplitude amplitude_10 amplitude_10_zscore amplitude_20 amplitude_20_zscore amplitude_5 amplitude_5_zscore bias_10 bias_10_zscore bias_20 bias_20_zscore bias_5 bias_5_zscore bias_60 bias_60_zscore bp bp_zscore circ_mv circ_mv_log circ_mv_log_zscore close close_hfq debt_to_assets debt_to_assets_zscore ep ep_growth ep_zscore gross_margin gross_margin_zscore high high_hfq is_limit is_limit_down is_limit_up is_tradable is_trading limit_ratio low low_hfq ma_10 ma_120 ma_20 ma_250 ma_5 ma_60 macd macd_hist macd_hist_zscore macd_signal macd_signal_zscore macd_zscore n_income_attr_p_sq n_income_attr_p_sq_log n_income_attr_p_ttm n_income_attr_p_ttm_log net_profit_yoy net_profit_yoy_zscore netprofit_margin open open_hfq operate_profit_ttm operate_profit_ttm_log pre_close return_1d return_1d_raw revenue_sq revenue_sq_log revenue_ttm revenue_ttm_log revenue_ttm_log_zscore revenue_yoy revenue_yoy_zscore roa roa_zscore roc_10 roc_10_zscore roc_20 roc_20_zscore roc_5 roc_5_zscore roc_60 roc_60_zscore roe roe_zscore rsi_12 rsi_12_zscore rsi_24 rsi_24_zscore rsi_6 rsi_6_zscore sp sp_zscore total_assets total_assets_log total_equity total_equity_log total_liab total_liab_log total_mv total_mv_log total_mv_log_zscore total_profit_ttm total_profit_ttm_log turnover vol vol_log volatility_10 volatility_10_zscore volatility_20 volatility_20_zscore volatility_5 volatility_5_zscore volatility_60 volatility_60_zscore volume_ratio_10 volume_ratio_10_zscore volume_ratio_20 volume_ratio_20_zscore volume_ratio_5 volume_ratio_5_zscore vwap vwap_hfq
feature_infos=[1:10055.6396484375] [2.2119998931884766:20935018] [1.1668938398361206:16.85693359375] [0:0.38104447722434998] [0.001741445972584188:0.24724112451076508] [-2.9318361282348633:3] [0.0028890364337712526:0.19317425787448883] [-2.7382895946502686:3] [0:0.28651779890060425] [-3:3] [-0.42718365788459778:0.97321081161499023] [-3:3] [-0.52767324447631836:1.715909481048584] [-3:3] [-0.29979604482650757:0.45792371034622192] [-3:3] [-0.74110275506973267:3.2731273174285889] [-3:3] [0:4.122011661529541] [-1.3613189458847046:3] [0:308576192] [0:19.547479629516602] [-3:3] [0.94999998807907104:2456.429931640625] [1.4819099903106689:32077.4921875] [0:128.69599914550781] [-1.9633970260620117:3] [0:0.73822528123855591] [0:163.03631591796875] [-0.92776095867156982:3] [-29914681344:711231995904] [-2.3369629383087158:3] [0.94999998807907104:2456.429931640625] [1.4819099903106689:35094.18359375] [0:1] [0:1] [0:1] [0:1] [0:1] [0.10000000149011612:0.30000001192092896] [0.76999998092651367:2350] [1.4714000225067139:30267.4765625] [1.4619410037994385:27166.70703125] [1.5721452236175537:25410.82421875] [1.4714000225067139:26467.455078125] [1.5931707620620728:23211.96484375] [1.4608900547027588:29529.2890625] [1.5116883516311646:25202.78515625] [-848.549560546875:2298.90576171875] [-475.46823120117188:939.8138427734375] [-3:3] [-810.289794921875:1434.1968994140625] [-3:3] [-3:3] [-15095000064:96516997120] [-23.437629699707031:25.292985916137695] [-38619500544:362720985088] [-24.377023696899414:26.616899490356445] [-1185.0966796875:1247.5836181640625] [-3:3] [-275132.09375:87323.2890625] [0.76999998092651367:2368.800048828125] [1.4714000225067139:32580.2734375] [-46084567040:423563984896] [-24.553743362426758:26.771970748901367] [0.86000001430511475:2368.800048828125] [-0.20031055808067322:0.30000001192092896] [-0.20031055808067322:0.30000001192092896] [-6017479680:876258983936] [-22.517934799194336:27.498928070068359] [0:3338113122304] [0:28.836427688598633] [-3:3] [-67.075202941894531:220.8489990234375] [-2.6073033809661865:3] [-10.080699920654297:23.277700424194336] [-3:3] [-0.59261465072631836:5.5315957069396973] [-3:3] [-0.74647897481918335:6.2669825553894043] [-3:3] [-0.46687451004981995:1.4887917041778564] [-3:3] [-0.87516659498214722:10.342935562133789] [-3:3] [-44.488498687744141:33.948200225830078] [-3:3] [0.561065673828125:99.810470581054688] [-3:3] [2.1830637454986572:98.896743774414062] [-3:3] [0.08049466460943222:99.9892578125] [-3:3] [0:42.918453216552734] [-0.47635525465011597:3] [0:43669604270080] [0:31.407672882080078] [-2912684800:3575999102976] [-21.792341232299805:28.905265808105469] [0:40073185722368] [0:31.321727752685547] [0:308576192] [0:19.547479629516602] [-3:3] [-45879562240:425974005760] [-24.549285888671875:26.777643203735352] [0:3685.623291015625] [2.5999999046325684:30838362] [1.2809338569641113:17.244270324707031] [0.00011285798973403871:0.21303944289684296] [-2.6494393348693848:3] [0.00065369060030207038:0.15976223349571228] [-2.7356245517730713:3] [6.6151049395557493e-05:0.21014827489852905] [-3:3] [0.0035601851996034384:0.1274082213640213] [-2.9820911884307861:3] [0.0033217256423085928:7.0714287757873535] [-2.4839093685150146:3] [0.0048442129045724869:11.194416046142578] [-1.9745031595230103:3] [0.0070868395268917084:4.5930495262145996] [-3:3] [0.8240584135055542:2394.521484375] [1.4780281782150269:33246.1796875]
tree_sizes=6269 6428 6417 6416

Tree=0
num_leaves=63
num_cat=0
split_feature=106 12 13 101 18 29 27 94 94 29 93 94 68 94 94 29 29 29 94 29 106 29 8 1 3 4 12 77 94 29 18 94 94 94 29 83 83 36 52 94 29 94 29 29 94 12 13 29 94 49 53 7 29 107 50 102 52 50 50 8 13 93
split_gain=26.1692 19.5785 22.0015 17.2659 7.81964 9.87942 12.0999 11.3977 13.7886 23.3907 9.95514 5.58691 4.7689 18.6035 12.7999 5.71173 20.963 4.58918 4.14426 3.62118 3.58381 3.50816 3.38508 4.56131 3.37172 3.12029 2.96797 2.78775 2.74628 2.71462 2.66529 5.29772 3.61001 2.63621 2.59155 2.47393 2.25149 2.20496 2.20217 2.19304 3.34409 2.91158 4.54763 2.29991 2.19071 2.15795 4.25684 2.1052 3.21073 2.03315 2.6066 1.93706 1.93492 1.91375 1.86926 2.54515 2.36931 1.82408 1.78502 1.7606 1.73162 2.09029
threshold=21.223800659179691 -0.12315878272056578 -1.1939928531646726 386772.28125000006 0.28251779079437261 -0.61536857485771168 0.0030595894204452638 -0.25120502710342402 -0.31054465472698206 -0.44835545122623438 1.0000000180025095e-35 -0.3914333283901214 1.0000000180025095e-35 -0.31188605725765223 -0.26599732041358942 -0.61743292212486256 -0.47103643417358393 -0.64810845255851735 -0.29392063617706293 -0.77565875649452198 34.981950759887702 -0.44263727962970728 0.029442804865539077 62885.757812500007 1.0000000180025095e-35 0.10609394684433938 -0.16054093837738034 -0.061115702614188187 -0.29392063617706293 -0.7460394799709319 0.069702208042144789 -0.31054465472698206 -0.28910133242607111 -0.30410313606262201 -0.47103643417358393 -0.35416504740715021 -0.19314760714769361 1.0000000180025095e-35 0.04559514299035073 -0.36275272071361536 -0.72408542037010182 -0.33971546590328211 -0.68215650320053089 -0.67389813065528859 -0.3568431288003921 -0.084510523825883851 -0.70353564620017994 -0.52722388505935658 -0.31054465472698206 0.022109045647084716 0.025277688167989257 -0.22923059761524198 -0.7426462173461913 45331.990234375007 -0.087723553180694566 11.204397678375246 -0.01140607940033078 0.022228742018342022 0.040935106575489051 0.040025740861892707 -0.65151906013488758 0.097867947071790709
decision_type=2 2 2 2 2 2 2 2 2 2 2 2 2 2 2 2 2 2 2 2 2 2 2 2 2 2 2 2 2 2 2 2 2 2 2 2 2 2 2 2 2 2 2 2 2 2 2 2 2 2 2 2 2 2 2 2 2 2 2 2 2 2
left_child=1 2 29 12 5 17 7 8 11 10 18 -7 13 27 15 -15 33 19 -10 -5 -2 -11 49 25 53 45 -4 57 -23 35 31 -31 -33 47 51 -1 59 -8 -18 40 52 42 44 -42 -41 46 -24 48 -17 58 54 -13 -21 -6 55 56 -51 -3 -14 -26 61 -28
right_child=20 3 26 4 24 6 37 -9 9 21 -12 34 22 14 -16 16 38 -19 -20 39 -22 28 23 -25 36 -27 60 -29 -30 30 -32 32 -34 -35 -36 -37 -38 -39 -40 41 43 -43 -44 -45 -46 -47 -48 -49 -50 50 -52 -53 -54 -55 -56 -57 -58 -59 -60 -61 -62 -63
leaf_value=0.0047851104021930562 0.0012362102134428118 0.0021197221952705741 0.004038210497664241 0.0020875152846899759 0.0071192036931652025 0.001032869764411553 0.0017281661368039657 0.0018894996287335418 -0.000819756067619249 0.0022505273201981922 0.001513383847339388 0.0020489851577748363 0.0017993629191063178 0.0019012511300374728 0.0017983888212775002 0.0010508994922364841 0.00064915824317364826 0.0021792963410951017 -0.0027888300816851829 0.0018234781052039089 0.00055104593369051011 0.00021748002006828897 0.0021535790428389434 0.0019305750592567459 0.0019273902745406538 0.0046934631219416687 0.0021129903596062284 0.0019744019516102179 0.0011648730510007211 0.0020133128109378448 0.0021127778870172103 -0.00098503095423511607 0.0013043417685335993 -0.0019626465124033994 0.00051277167053553029 0.0025068292352244219 0.0018506739501003683 0.002478206530540504 0.0014343265773110792 0.0014138845449005791 0.0021623640849932537 0.0018006842217973646 0.0010741364692134739 0.0017966139451076543 0.001999301482112944 0.0021403592298905555 0.0031677229869064598 0.00089830561315411891 -0.0026169221426518207 0.0077384999906623883 0.0017899109026915394 0.0015868610694293112 0.0014818016023812534 0.0031476653915755168 0.0020572251812099275 0.0023752045571681568 0.002610332919037439 0.0027148580688526767 0.0020605390424960042 0.0022498862642528379 0.0036543597278188935 0.0032146851729539447
leaf_weight=483 27723 10942 4607 39378 145 13110 328742 29754 5120 2440 1521 16227 99969 3413 23514 337 5288 36706 1193 44384 9153 3069 10999 103855 49002 442 2335 94983 27312 5518 26174 1053 1517 2426 1432 3892 704610 3564 8248 10495 37642 60131 15747 26253 12721 180302 5641 673 604 155 27525 16422 22485 454 60158 14312 173 8068 30809 22130 3665 4655
leaf_count=483 27723 10942 4607 39378 145 13110 328742 29754 5120 2440 1521 16227 99969 3413 23514 337 5288 36706 1193 44384 9153 3069 10999 103855 49002 442 2335 94983 27312 5518 26174 1053 1517 2426 1432 3892 704610 3564 8248 10495 37642 60131 15747 26253 12721 180302 5641 673 604 155 27525 16422 22485 454 60158 14312 173 8068 30809 22130 3665 4655
internal_value=0.00185792 0.00187166 0.00243663 0.00185798 0.00180178 0.0017331 0.00164366 0.00138212 0.00121023 0.000805266 -0.000667723 0.00155919 0.00198225 0.00183776 0.00131756 0.000779049 0.000560969 0.00186461 -0.00119268 0.00182172 0.00106605 0.00115698 0.00202512 0.00209155 0.00186865 0.00217623 0.00340103 0.00204081 0.00106905 0.00205559 0.00196562 0.0014898 0.000364785 -0.00133557 0.00176174 0.00275934 0.00186691 0.00173622 0.00112734 0.00177617 0.00185686 0.00166972 0.0014677 0.00201204 0.00173478 0.00217056 0.00249759 -0.000390276 -0.00130768 0.00193926 0.00203943 0.00181663 0.00170854 0.00411765 0.00213129 0.0024354 0.0050481 0.00237248 0.00186087 0.00202777 0.00312515 0.00284714
internal_weight=2.3158e+06 2.27892e+06 53899 2.22502e+06 1.53219e+06 755848 449906 117600 87846 40655 7834 47191 692836 158496 44503 20989 17576 305942 6313 269236 36876 32821 534340 301239 776341 197384 15262 113993 30381 38637 34262 8088 2570 4040 34081 4375 775742 332306 13536 229858 130764 99094 38963 63895 23216 196942 16640 1614 941 233101 102323 32649 66869 599 74798 14640 328 19010 130778 71132 10655 6990
internal_count=2315800 2278924 53899 2225025 1532189 755848 449906 117600 87846 40655 7834 47191 692836 158496 44503 20989 17576 305942 6313 269236 36876 32821 534340 301239 776341 197384 15262 113993 30381 38637 34262 8088 2570 4040 34081 4375 775742 332306 13536 229858 130764 99094 38963 63895 23216 196942 16640 1614 941 233101 102323 32649 66869 599 74798 14640 328 19010 130778 71132 10655 6990
is_linear=0
shrinkage=1


Tree=1
num_leaves=63
num_cat=0
split_feature=106 12 101 50 18 29 27 94 94 19 94 68 19 19 53 31 16 29 19 29 29 29 29 78 106 51 16 50 49 17 29 19 29 93 94 94 77 94 94 29 19 94 29 19 94 19 31 19 19 29 29 94 16 8 16 36 117 19 12 94 29 4
split_gain=23.7679 19.0427 15.9343 14.5963 7.19101 8.78695 11.1196 10.3883 12.7011 26.9523 5.17959 4.60879 19.3054 11.7878 12.5434 4.98145 4.91578 4.19019 4.1726 4.6138 4.10722 4.61085 4.05576 3.82562 3.67622 3.66102 3.55589 3.50105 3.7799 3.4452 3.26454 3.22639 2.99623 3.75762 5.88743 3.79667 2.97309 2.96117 2.85866 2.79378 2.74783 2.74143 2.65678 2.60215 2.54171 2.5397 2.50829 2.30802 3.7645 2.92078 2.59556 2.37735 2.24105 2.23449 2.2307 2.22807 3.05777 2.13419 2.10206 2.05018 2.02141 2.01599
threshold=21.223800659179691 -0.11745763942599295 393456.95312500006 0.011429609265178444 0.28251779079437261 -0.61536857485771168 0.0030595894204452638 -0.25120502710342402 -0.31054465472698206 -0.49002514779567713 -0.3914333283901214 1.0000000180025095e-35 -0.74499747157096852 -0.51226630806922901 0.08601014688611032 -0.10879420861601828 -0.093806330114603029 -0.44263727962970728 -0.52770844101905812 -0.55320093035697926 -0.39111560583114618 -0.36984357237815851 -0.64810845255851735 -0.74317586421966542 34.981950759887702 -1.1150717735290525 -0.10563420504331587 0.05821566283702851 0.065566141158342375 -0.26768587529659266 -0.77565875649452198 -0.19485212862491605 -0.74060890078544606 0.025080665946006778 -0.31054465472698206 -0.28910133242607111 -0.15016593784093854 -0.2779002040624618 -0.29202540218830103 -0.76658517122268666 -0.74499747157096852 -0.33351013064384455 -0.47678074240684504 -1.0094524025917051 -0.30410313606262201 -0.45264126360416407 -0.13537877053022382 -0.93930241465568531 -0.90759381651878346 -0.72408542037010182 -0.68215650320053089 -0.35194011032581324 -0.1501817777752876 0.050563190132379539 -0.24752902984619138 1.0000000180025095e-35 0.39869585633277899 -1.0041705369949339 -0.072803772985935197 -0.35541717708110804 -0.50031125545501698 0.10609394684433938
decision_type=2 2 2 2 2 2 2 2 2 2 2 2 2 2 2 2 2 2 2 2 2 2 2 2 2 2 2 2 2 2 2 2 2 2 2 2 2 2 2 2 2 2 2 2 2 2 2 2 2 2 2 2 2 2 2 2 2 2 2 2 2 2
left_child=1 3 11 23 5 22 7 8 10 18 -7 12 41 14 25 27 -17 -15 19 -10 -11 -22 30 32 -2 -14 29 39 46 -6 -4 52 54 34 -34 -36 -25 44 -21 -13 59 43 60 -3 -16 -19 -29 49 50 -32 51 -49 -8 -5 -1 -28 -57 -51 -48 -12 -27 -41
right_child=24 2 4 53 26 6 31 -9 9 20 40 15 13 17 37 16 -18 45 -20 38 21 -23 -24 36 -26 42 55 28 -30 -31 47 -33 33 -35 35 -37 -38 -39 -40 61 -42 -43 -44 -45 -46 -47 58 48 -50 57 -52 -53 -54 -55 -56 56 -58 -59 -60 -61 -62 -63
leaf_value=0.0020502166398431725 -0.00058289060810967413 0.00028439994804888328 0.00021662061238621511 0.00093430957612041518 0.00015200585402604363 -0.00079682823529337286 0.00025512631117011609 2.8068990272736953e-05 -0.00098375744279083246 -0.00018974629628283696 -3.3886598043733934e-05 0.00032837553678060954 -0.0024193775868574683 0.00069646732227357305 -0.0020185812023479975 0.00073988875831203639 0.00023892543138391738 -0.0010494259685313128 -0.0015809138040277619 -0.0027683675646076036 -0.0013018340842655904 -0.00018012935622363624 0.00030056511849078325 0.0021534833225727332 -0.0012775924781445545 -0.00055625868027785283 -1.9292188421964034e-05 0.00065936521239669623 4.0952642335811003e-05 0.0010483289669048718 -0.00014455703177244816 -0.00036344925452831749 0.00012970123211708846 0.00026125226220889496 -0.0027401024820624957 -0.00057322542360183646 0.0005982718096960751 -0.00024142667758401693 -0.0044331640867876282 2.3938375555732373e-05 -0.00057145009278296039 0.00057162044437003253 -0.0013850484239066579 -2.0493068250377706e-05 -0.0037253561534195262 -0.0002298669113017349 0.00080750633619285517 -0.00041895225806624811 -7.6088063408794892e-05 0.00030496373961378547 -0.00077236833371051512 0.00053771314885347674 -0.0001034095861760058 0.0017356795600314118 0.00055243513559442967 0.003675617139496266 0.00039985365279281181 -3.36050257978515e-05 0.00018671587145986231 0.00081172004112217255 0.0005853634733583873 0.0018613627850140306
leaf_weight=1100 27631 49305 38594 5232 75691 12990 16656 29174 1072 14653 22297 30827 1050 3958 1318 21322 102032 3968 4363 4156 9290 5124 36103 1559 9135 5440 676722 22062 44723 4068 64599 42236 5456 30718 1307 1652 3840 380 1209 279959 8092 14372 2571 51480 1990 24039 5640 9347 67939 34002 14287 3115 269336 7891 4859 267 6402 33009 38109 2917 1875 538
leaf_count=1100 27631 49305 38594 5232 75691 12990 16656 29174 1072 14653 22297 30827 1050 3958 1318 21322 102032 3968 4363 4156 9290 5124 36103 1559 9135 5440 676722 22062 44723 4068 64599 42236 5456 30718 1307 1652 3840 380 1209 279959 8092 14372 2571 51480 1990 24039 5640 9347 67939 34002 14287 3115 269336 7891 4859 267 6402 33009 38109 2917 1875 538
internal_value=-7.28316e-08 1.32998e-05 -1.39842e-06 0.00052505 -5.65022e-05 -0.000122833 -0.00020773 -0.000461128 -0.0006268 -0.00101933 -0.000288705 0.000116116 -2.45003e-05 -0.000539798 -0.00124533 0.000157837 0.000325545 -0.000216908 -0.00229906 -0.0027852 -0.000543707 -0.00090331 2.26662e-06 0.000293295 -0.000755595 -0.000734667 8.20875e-06 0.000108791 0.000253841 0.000197766 -3.83786e-05 -0.000118677 0.000202847 0.000107326 -0.000454189 -0.00153166 0.00104806 -0.00275849 -0.00314447 5.72814e-05 -9.04284e-05 0.000183949 -0.000555316 0.000128634 -0.00304664 -0.000346105 0.000398466 -8.18811e-05 -0.000194834 -5.93171e-07 -0.000496313 -0.000179572 -8.25178e-05 0.00141646 0.00082957 -1.39103e-05 0.000531718 0.000138144 0.000266823 6.38366e-05 -0.000263205 2.74766e-05
internal_weight=2.31505e+06 2.27828e+06 2.21467e+06 63614 1.50771e+06 744560 443565 115337 86163 39867 46296 706958 161746 46589 14624 545212 123354 31965 10800 6437 29067 14414 300995 50491 36766 10936 763150 421858 110534 79759 264892 328228 45092 39133 8415 2959 5399 3688 5365 311324 33306 115157 9886 100785 3308 28007 65811 226298 94688 131610 26749 12462 285992 13123 5959 683391 6669 67011 43749 25214 7315 280497
internal_count=2315048 2278282 2214668 63614 1507710 744560 443565 115337 86163 39867 46296 706958 161746 46589 14624 545212 123354 31965 10800 6437 29067 14414 300995 50491 36766 10936 763150 421858 110534 79759 264892 328228 45092 39133 8415 2959 5399 3688 5365 311324 33306 115157 9886 100785 3308 28007 65811 226298 94688 131610 26749 12462 285992 13123 5959 683391 6669 67011 43749 25214 7315 280497
is_linear=0
shrinkage=0.03


Tree=2
num_leaves=63
num_cat=0
split_feature=106 16 17 102 16 36 17 18 19 95 94 19 94 93 94 94 94 3 50 12 68 19 94 19 94 19 31 19 16 106 19 16 17 1 93 94 16 31 19 94 19 75 3 78 19 19 102 12 31 121 52 81 8 19 18 94 94 16 94 94 106 18
split_gain=22.479 18.204 20.0577 14.4164 6.53222 6.48007 6.02683 5.99122 6.21374 7.12571 20.1372 8.55368 6.52536 4.83908 11.6074 5.66466 4.70371 4.69819 4.16683 5.99847 4.39502 13.0383 10.0966 7.67597 6.92561 8.24368 5.63874 3.75636 3.31015 3.23981 2.81217 2.56598 4.02133 2.5196 2.40721 2.39719 2.27372 2.1861 2.16349 3.73046 2.99619 2.17269 2.09693 2.37241 2.04691 2.04635 2.02111 6.22985 2.18627 2.05725 1.86825 1.82424 1.77904 1.77607 1.75425 1.84478 1.72993 1.68928 1.64155 2.0422 1.63052 1.60501
threshold=21.223800659179691 -0.18897303193807599 -0.94908845424652089 12.952414512634279 -0.27722217142581934 1.0000000180025095e-35 -1.5590075254440305 0.25834786891937261 -0.63869601488113392 1045529920.0000001 -0.28556129336357111 -0.49002514779567713 -0.31054465472698206 0.017833640798926357 -0.31188605725765223 -0.28910133242607111 -0.25120502710342402 0.011697173584252598 0.056901048868894584 -0.052677895873785012 1.0000000180025095e-35 -0.74499747157096852 -0.26599732041358942 -0.46233867108821863 -0.31054465472698206 -0.57342854142189015 -0.10705339908599852 -0.52770844101905812 -0.074829645454883562 34.981950759887702 -0.19485212862491605 -0.097033649682998643 -0.24917294085025785 22990.972656250004 0.017833640798926357 -0.29392063617706293 -0.21571593731641767 -0.1705498471856117 -1.0041705369949339 -0.3914333283901214 -0.88993871212005604 3.8164499998092656 1.0000000180025095e-35 0.9050775170326234 -0.93930241465568531 -0.46891395747661585 11.623952865600588 0.037791717797517783 -0.13726859539747235 2.7633069753646855 -0.090151675045490251 0.035243226215243346 0.056613696739077575 -0.74499747157096852 0.063275322318077101 -0.41574196517467493 -0.38493530452251429 -0.085179436951875673 -0.33351013064384455 -0.31839627027511591 9.5844502449035662 0.1789180859923363
decision_type=2 2 2 2 2 2 2 2 2 2 2 2 2 2 2 2 2 2 2 2 2 2 2 2 2 2 2 2 2 2 2 2 2 2 2 2 2 2 2 2 2 2 2 2 2 2 2 2 2 2 2 2 2 2 2 2 2 2 2 2 2 2
left_child=1 2 4 18 6 7 52 8 38 10 11 12 -10 14 -6 -16 45 33 20 -20 21 -3 23 24 -23 -26 37 34 -28 -2 61 32 -9 -7 35 -14 -4 -22 56 54 44 53 -21 -44 -41 -12 47 -39 -49 51 -15 -50 -1 58 55 -40 57 -5 -42 -60 -33 -11
right_child=29 3 36 5 13 17 -8 31 9 30 16 -13 27 50 15 -17 -18 -19 19 42 26 22 -24 -25 25 -27 28 -29 -30 -31 -32 60 -34 -35 -36 -37 -38 46 39 40 41 -43 43 -45 -46 -47 -48 48 49 -51 -52 -53 -54 -55 -56 -57 -58 -59 59 -61 -62 -63
leaf_value=4.385026654099214e-05 -0.00057245795682864167 0.00012097774883788626 0.0019991262501402422 0.00024693263802418503 0.00028619885838673917 0.006876281002833929 0.0021589178262620642 8.8000881367906024e-05 -0.00067070755724174579 -0.00023740072111698074 4.937209353782532e-05 -0.00040223517611766231 -0.002606601106492214 0.00013133219769886003 -0.003262399198522442 -0.00088245395487642538 0.00010904023656807657 0.00041565052526692213 0.00065596857836986583 0.0022074187483394334 0.00030838461749415421 -0.00046681137715662529 -7.534040261205896e-05 -0.00031275207001880327 -0.0037847951965768738 -0.0014679272610493232 0.00058482714211435609 -0.0015502405193661853 0.00020187207517933627 -0.001223994421202344 -0.00043898823251009692 -1.7440071658964985e-05 0.00088720850417799949 0.0019700007983097147 -0.00038408702022832056 -0.0042806907845354542 0.0012013639461403991 0.00010623204774132819 0.00019022470760892172 -5.6255187224056167e-05 2.8212873303738553e-05 -0.0001459918174479651 0.00021604609363540988 -6.0346020278866241e-05 -0.0003446673149978537 -0.00065513028681913167 1.3488619832947442e-05 -0.00038992368340474797 0.0041379969713972635 0.0069842412356196379 0.00064017002451377005 0.0014929591459779167 0.0011551570908363811 -0.00011477116355800864 -0.00014740803972153812 -0.00077827009993827528 0.0002450753838867164 -7.8886753600728739e-05 0.00061908675428785833 0.0001500356730038887 -0.00023671769469670151 -4.3340374968992083e-05
leaf_weight=3603 27725 90795 5865 17731 6721 104 2751 87409 3302 58641 4730 5636 3647 23021 1448 2392 23549 13267 25302 448 26606 4186 23685 9120 1765 6420 26481 4054 87446 9150 27215 637356 6060 1036 353 988 7198 5998 2035 42226 41162 54262 121884 36246 46641 17088 308255 213 381 102 9058 627 2030 28900 10564 13346 30304 74447 12335 25964 32058 111038
leaf_count=3603 27725 90795 5865 17731 6721 104 2751 87409 3302 58641 4730 5636 3647 23021 1448 2392 23549 13267 25302 448 26606 4186 23685 9120 1765 6420 26481 4054 87446 9150 27215 637356 6060 1036 353 988 7198 5998 2035 42226 41162 54262 121884 36246 46641 17088 308255 213 381 102 9058 627 2030 28900 10564 13346 30304 74447 12335 25964 32058 111038
internal_value=-7.49354e-08 1.24468e-05 0.000510895 -1.98401e-06 0.000242278 -5.82379e-05 0.00100779 -6.46489e-05 -0.000130821 -0.000244921 -0.000521698 -0.00137135 -0.00181354 9.16798e-05 -0.000465196 -0.00178098 -0.000184886 0.000574778 0.000102221 0.000226974 6.3472e-05 -8.62157e-05 -0.000502698 -0.000973531 -0.00146039 -0.0019681 0.000108102 -0.0022305 0.000290914 -0.000734223 -0.000155856 -7.38293e-06 0.000139854 0.00242304 -0.00278256 -0.00296452 0.00155983 4.72272e-05 -5.65648e-05 -0.000102931 -6.75828e-05 8.94602e-06 0.000158504 0.000152674 -0.00020766 -0.000502264 2.51992e-05 0.000517837 0.00238089 0.00291523 0.000275112 0.00249725 0.000444938 8.65595e-05 -0.000445444 -0.000649935 4.84351e-05 -1.61799e-05 0.000159822 0.000301188 -2.79459e-05 -0.000110426
internal_weight=2.31437e+06 2.2775e+06 64087 2.21341e+06 51024 1.43745e+06 8384 1.42304e+06 660158 260241 63347 17980 12344 42640 10561 3840 45367 14407 775960 183880 592080 135971 45176 21491 12371 8185 456109 9042 113927 36875 196894 762883 93469 1140 4988 4635 13063 342182 399917 277435 251490 162623 158578 158130 88867 21818 315576 7321 1323 1110 32079 1008 5633 108361 25945 15381 122482 92178 79461 38299 669414 169679
internal_count=2314370 2277495 64087 2213408 51024 1437448 8384 1423041 660158 260241 63347 17980 12344 42640 10561 3840 45367 14407 775960 183880 592080 135971 45176 21491 12371 8185 456109 9042 113927 36875 196894 762883 93469 1140 4988 4635 13063 342182 399917 277435 251490 162623 158578 158130 88867 21818 315576 7321 1323 1110 32079 1008 5633 108361 25945 15381 122482 92178 79461 38299 669414 169679
is_linear=0
shrinkage=0.03


Tree=3
num_leaves=63
num_cat=0
split_feature=106 16 1 8 113 114 9 29 27 29 29 36 119 36 18 29 27 94 29 29 29 50 49 50 53 4 106 29 29 29 8 14 94 29 29 50 10 53 14 29 103 9 94 10 53 29 18 50 43 52 52 16 50 53 83 11 1 53 29 56 29 16
split_gain=22.3243 17.5997 13.7722 12.9341 8.58204 6.27516 5.95273 5.29901 5.50336 9.44228 4.77272 4.18957 4.63321 4.07688 4.08461 4.68501 6.96753 7.13544 7.18664 9.13741 4.08869 3.95613 5.09996 4.69106 3.27065 3.71474 3.25972 3.21118 3.12191 2.9869 2.80614 2.75664 2.65127 3.47395 2.51402 2.69149 2.68208 2.34563 2.20408 2.06513 1.98986 1.97461 1.91103 1.85073 1.74694 1.69505 1.63461 1.6156 1.84277 1.59655 2.43681 1.54872 1.53926 2.72848 2.59382 1.50779 1.47946 1.45083 1.60212 1.42371 1.66632 1.37157
threshold=21.223800659179691 -0.18897303193807599 101433.00781250001 0.053533343598246581 0.024222149513661865 -0.20041886717081067 0.42163048684597021 -0.7460394799709319 1.0000000180025095e-35 -0.56560581922531117 -0.50031125545501698 1.0000000180025095e-35 0.44480870664119726 1.0000000180025095e-35 0.2385581582784653 -0.61536857485771168 0.0030595894204452638 -0.25120502710342402 -0.55320093035697926 -0.50031125545501698 -0.64810845255851735 0.060974212363362319 0.046591477468609817 -0.037711393088102334 0.19299945980310443 0.10609394684433938 34.981950759887702 -0.75298810005187977 -0.7460394799709319 -0.77348539233207692 0.067644435912370696 -0.0096093411557376367 -0.29392063617706293 -0.47678074240684504 -0.77565875649452198 -0.011530495248734949 -0.049026474356651299 -0.098925516009330736 0.13921175897121432 -0.77214926481246937 -2.0270717144012447 1.1341524720191958 -0.3914333283901214 -0.036143135279417031 0.0076196864247322091 -0.75298810005187977 0.24744207412004474 -0.10407537966966628 24.664970397949222 1.0000000180025095e-35 -0.059037201106548302 -0.087910696864128099 -0.0047261035069823256 0.1381853669881821 -0.089634019881486879 -0.41014942526817316 20598.978515625004 -0.03750635311007499 -0.61022609472274769 7225391.7500000009 -0.56560581922531117 0.014187496621161701
decision_type=2 2 2 2 2 2 2 2 2 2 2 2 2 2 2 2 2 2 2 2 2 2 2 2 2 2 2 2 2 2 2 2 2 2 2 2 2 2 2 2 2 2 2 2 2 2 2 2 2 2 2 2 2 2 2 2 2 2 2 2 2 2
left_child=1 3 4 7 21 -6 -5 27 9 57 -11 24 56 14 15 20 17 18 42 -20 39 22 29 40 25 34 -2 -1 45 -3 59 -23 33 -21 -7 46 -37 -10 -33 -4 49 -32 -17 55 -42 -8 -36 48 -45 50 -24 -16 -49 -54 -55 -31 -13 -9 -59 60 -30 -26
right_child=26 2 13 6 5 11 28 8 37 10 -12 12 -14 -15 51 16 -18 -19 19 32 -22 31 23 -25 61 -27 -28 -29 30 43 41 38 -34 -35 35 36 -38 -39 -40 -41 44 -43 -44 47 -46 -47 -48 52 -50 -51 -52 -53 53 54 -56 -57 -58 58 -60 -61 -62 -63
leaf_value=0.00074774509562450481 -0.00056921387285176976 0.00023539568698662173 0.00012649854782231614 0.0017887097757014699 0.00064241363076279724 0.00054088595432876506 0.0012626339915736123 -6.1855024008730317e-05 0.00014872864519704129 -0.0037117125498086585 -0.0010936635080602739 0.006816216998630149 0.00072710419985154505 0.00036364093676277448 0.00010221626599185945 -0.000813286121436784 -0.00016075815518791514 2.110480080400932e-05 -0.0031353962858603371 -0.00027013951480615557 0.00031795740594289519 0.00030373947846059019 0.00016306419609287795 -2.8569640792295088e-06 -0.0010521695393776291 0.0024812127576786919 -0.0012217078067529011 0.0026923590194950575 4.127177579269299e-06 -3.1234027172736997e-06 0.0020328200634688594 6.0049089962273105e-05 -0.00072524839285995882 -0.0019905411652635457 -0.00013934219082914747 0.00061732182526696175 0.00017706644865455749 0.00074578214732891009 0.0040863306386130192 -0.00015898122514581355 0.00031889727633285309 0.00069368028382303323 -0.00018903525430405101 0.00022068711541456168 5.0242815326468386e-05 0.003329120752819928 0.00011871015299728202 -0.00018051153134159592 -8.0266517565173167e-05 0.00014868880077300217 0.0060236237211683044 -6.1286486699137937e-05 -3.3019449927826268e-05 -0.0018709452234290562 -0.00027035209930584091 0.00034586062114571909 0.0029016026573020831 0.0010999019913542959 -0.001771223749563789 0.00049198846718452463 -0.0019148127004053413 -0.00019734922927830881
leaf_weight=3016 27768 29007 27722 7588 26854 14808 1051 6343 17920 767 3462 113 3477 17257 59987 5908 180651 15825 1817 1477 23277 62971 107 166768 2078 623 9184 1027 1884 72887 1502 136155 15943 3748 37834 13910 119579 8858 122 128328 76740 2947 17530 27059 30458 548 53090 214625 56626 199 162 398010 143717 1394 2646 13149 408 1946 191 4597 518 9108
leaf_count=3016 27768 29007 27722 7588 26854 14808 1051 6343 17920 767 3462 113 3477 17257 59987 5908 180651 15825 1817 1477 23277 62971 107 166768 2078 623 9184 1027 1884 72887 1502 136155 15943 3748 37834 13910 119579 8858 122 128328 76740 2947 17530 27059 30458 548 53090 214625 56626 199 162 398010 143717 1394 2646 13149 408 1946 191 4597 518 9108
internal_value=-7.40525e-08 1.18508e-05 -2.34213e-06 0.000501652 5.94285e-05 0.000206177 0.00112031 0.000208305 0.000102302 -0.000411673 -0.00156958 0.000160229 0.00112378 -9.29678e-05 -0.000101923 -0.000169232 -0.0002551 -0.000528839 -0.000716371 -0.00109335 -5.29072e-05 1.94506e-05 -9.19063e-06 9.67853e-05 0.000144869 0.000168263 -0.000731479 0.00124273 0.000731288 -6.10279e-05 0.000557435 0.000139572 -0.000917858 -0.00150487 0.000162222 0.000137221 0.000222967 0.000346353 6.36906e-05 -0.000108247 0.000251152 0.00114663 -0.000346532 -7.7193e-05 0.000242593 0.00197354 1.12999e-05 -0.000101767 1.70098e-05 0.00220284 0.00370823 -3.98648e-05 -0.000129204 -5.46571e-05 -0.000823542 5.01791e-05 0.00376212 0.000165485 0.00084153 0.000182422 -0.000408763 -0.000356456
internal_weight=2.31527e+06 2.27832e+06 2.21415e+06 64165 1.31667e+06 281882 20635 43530 39487 12709 4229 255028 3998 897480 880223 422226 242899 62248 46423 22985 179327 1.03479e+06 835544 274434 251030 239844 36952 4043 13047 561110 11448 199248 21168 5225 239221 224413 133489 26778 136277 156050 107666 4449 23438 532103 107198 1599 90924 446067 83685 468 269 457997 362382 147757 4040 86036 521 8480 2137 6999 2402 11186
internal_count=2315271 2278319 2214154 64165 1316674 281882 20635 43530 39487 12709 4229 255028 3998 897480 880223 422226 242899 62248 46423 22985 179327 1034792 835544 274434 251030 239844 36952 4043 13047 561110 11448 199248 21168 5225 239221 224413 133489 26778 136277 156050 107666 4449 23438 532103 107198 1599 90924 446067 83685 468 269 457997 362382 147757 4040 86036 521 8480 2137 6999 2402 11186
is_linear=0
shrinkage=0.03


end of trees

feature_importances:
ep_zscore=43
sp_zscore=41
bp_zscore=23
bias_60=13
macd_hist_zscore=11
turnover=9
bp=8
bias_20=7
macd_zscore=7
amplitude_5=6
gross_margin_zscore=5
is_limit_up=5
macd_signal_zscore=5
sp=5
amount=4
bias_60_zscore=4
ep=4
amplitude=3
amplitude_10=3
bias_20_zscore=3
macd_hist=3
revenue_sq=3
roc_60=3
total_mv_log=3
amplitude_5_zscore=2
bias_10=2
bias_5=2
roc_10=2
roc_10_zscore=2
total_mv=2
amplitude_20_zscore=1
bias_10_zscore=1
ma_120=1
macd_signal=1
n_income_attr_p_ttm=1
roa=1
roc_5=1
total_assets=1
total_mv_log_zscore=1
vol=1
volatility_5=1
volatility_5_zscore=1
volume_ratio_10=1
volume_ratio_20=1
volume_ratio_5=1

parameters:
[boosting: gbdt]
[objective: regression]
[metric: custom]
[tree_learner: serial]
[device_type: cuda]
[data_sample_strategy: bagging]
[data: ]
[valid: ]
[num_iterations: 2000]
[learning_rate: 0.03]
[num_leaves: 63]
[num_threads: 0]
[seed: 42]
[deterministic: 0]
[force_col_wise: 0]
[force_row_wise: 1]
[histogram_pool_size: -1]
[max_depth: 6]
[min_data_in_leaf: 100]
[min_sum_hessian_in_leaf: 0.001]
[bagging_fraction: 0.8]
[pos_bagging_fraction: 1]
[neg_bagging_fraction: 1]
[bagging_freq: 1]
[bagging_seed: 400]
[bagging_by_query: 0]
[feature_fraction: 0.8]
[feature_fraction_bynode: 1]
[feature_fraction_seed: 30056]
[extra_trees: 0]
[extra_seed: 12879]
[early_stopping_round: 0]
[early_stopping_min_delta: 0]
[first_metric_only: 0]
[max_delta_step: 0]
[lambda_l1: 0.1]
[lambda_l2: 0.5]
[linear_lambda: 0]
[min_gain_to_split: 0]
[drop_rate: 0.1]
[max_drop: 50]
[skip_drop: 0.5]
[xgboost_dart_mode: 0]
[uniform_drop: 0]
[drop_seed: 17869]
[top_rate: 0.2]
[other_rate: 0.1]
[min_data_per_group: 100]
[max_cat_threshold: 32]
[cat_l2: 10]
[cat_smooth: 10]
[max_cat_to_onehot: 4]
[top_k: 20]
[monotone_constraints: ]
[monotone_constraints_method: basic]
[monotone_penalty: 0]
[feature_contri: ]
[forcedsplits_filename: ]
[refit_decay_rate: 0.9]
[cegb_tradeoff: 1]
[cegb_penalty_split: 0]
[cegb_penalty_feature_lazy: ]
[cegb_penalty_feature_coupled: ]
[path_smooth: 0]
[interaction_constraints: ]
[verbosity: -1]
[saved_feature_importance_type: 0]
[use_quantized_grad: 0]
[num_grad_quant_bins: 4]
[quant_train_renew_leaf: 0]
[stochastic_rounding: 1]
[linear_tree: 0]
[max_bin: 255]
[max_bin_by_feature: ]
[min_data_in_bin: 3]
[bin_construct_sample_cnt: 200000]
[data_random_seed: 175]
[is_enable_sparse: 1]
[enable_bundle: 1]
[use_missing: 1]
[zero_as_missing: 0]
[feature_pre_filter: 1]
[pre_partition: 0]
[two_round: 0]
[header: 0]
[label_column: ]
[weight_column: ]
[group_column: ]
[ignore_column: ]
[categorical_feature: ]
[forcedbins_filename: ]
[precise_float_parser: 0]
[parser_config_file: ]
[objective_seed: 16083]
[num_class: 1]
[is_unbalance: 0]
[scale_pos_weight: 1]
[sigmoid: 1]
[boost_from_average: 1]
[reg_sqrt: 0]
[alpha: 0.9]
[fair_c: 1]
[poisson_max_delta_step: 0.7]
[tweedie_variance_power: 1.5]
[lambdarank_truncation_level: 30]
[lambdarank_norm: 1]
[label_gain: ]
[lambdarank_position_bias_regularization: 0]
[eval_at: ]
[multi_error_top_k: 1]
[auc_mu_weights: ]
[num_machines: 1]
[local_listen_port: 12400]
[time_out: 120]
[machine_list_filename: ]
[machines: ]
[gpu_platform_id: 0]
[gpu_device_id: 0]
[gpu_use_dp: 0]
[num_gpu: 1]

end of parameters

pandas_categorical:null
